digraph Tree {
node [shape=box, style="filled", color="black"] ;
0 [label="x1 <= 0.824\nentropy = 1.0\nsamples = 200\nvalue = [100, 100]", fillcolor="#ffffff"] ;
1 [label="x2 <= -0.004\nentropy = 0.452\nsamples = 95\nvalue = [86, 9]", fillcolor="#e88e4e"] ;
0 -> 1 [labeldistance=2.5, labelangle=45, headlabel="True"] ;
2 [label="entropy = 0.0\nsamples = 45\nvalue = [45, 0]", fillcolor="#e58139"] ;
1 -> 2 ;
3 [label="x1 <= -0.731\nentropy = 0.68\nsamples = 50\nvalue = [41, 9]", fillcolor="#eb9d64"] ;
1 -> 3 ;
4 [label="entropy = 0.0\nsamples = 14\nvalue = [14, 0]", fillcolor="#e58139"] ;
3 -> 4 ;
5 [label="entropy = 0.811\nsamples = 36\nvalue = [27, 9]", fillcolor="#eeab7b"] ;
3 -> 5 ;
6 [label="x2 <= -0.482\nentropy = 0.567\nsamples = 105\nvalue = [14, 91]", fillcolor="#57ace9"] ;
0 -> 6 [labeldistance=2.5, labelangle=-45, headlabel="False"] ;
7 [label="entropy = 0.0\nsamples = 7\nvalue = [7, 0]", fillcolor="#e58139"] ;
6 -> 7 ;
8 [label="x1 <= 1.556\nentropy = 0.371\nsamples = 98\nvalue = [7, 91]", fillcolor="#48a5e7"] ;
6 -> 8 ;
9 [label="entropy = 0.826\nsamples = 27\nvalue = [7, 20]", fillcolor="#7ebfee"] ;
8 -> 9 ;
10 [label="entropy = 0.0\nsamples = 71\nvalue = [0, 71]", fillcolor="#399de5"] ;
8 -> 10 ;
}